embedding/embeddings:0
(26, 2)
[[-0.2625716  -0.13772248]
 [ 0.5037899  -0.36981162]
 [-0.4323541  -0.34718657]
 [-0.12000991  0.218683  ]
 [ 0.68240947  0.25748652]
 [-0.0888991  -0.11598954]
 [-0.5250356  -0.35607228]
 [-0.42056227  0.57539797]
 [-0.45126215 -0.08166721]
 [-0.3804317   0.4403107 ]
 [ 0.09156453 -0.57841974]
 [ 0.5254632   0.07198413]
 [ 0.5676338  -0.4510079 ]
 [-0.20340687  0.0821959 ]
 [-0.3988479  -0.22425443]
 [ 0.36090943 -0.43056336]
 [-0.3271621   0.6728966 ]
 [-0.7156523  -0.13866574]
 [-0.70528585  0.46366087]
 [-0.4794051   0.7689847 ]
 [-0.44410497 -0.43840274]
 [ 0.03406692  0.31342694]
 [ 0.58013076 -0.58880097]
 [ 0.5159675  -0.6936034 ]
 [ 0.82233983 -0.5520082 ]
 [-0.0353582   0.01978463]]
simple_rnn/kernel:0
(2, 10)
[[-1.4123764   0.4958891   0.6676076   0.19737044  0.48927486 -1.1073167
  -0.94326663 -1.2766982  -0.37224713 -1.2181734 ]
 [ 1.0217152  -1.1303467  -1.0060402  -0.7811361   1.0146685   0.3209232
   0.7735362  -0.90680116 -1.0465838   0.53933704]]
simple_rnn/recurrent_kernel:0
(10, 10)
[[ 1.0541915   0.26348448 -0.4319836  -0.82158107  0.10208036  0.91403216
   1.0348037   0.21472101 -1.148222   -0.86605775]
 [-1.1302793  -0.14269057  0.21281898  0.15896824  1.2500328  -0.947078
  -0.4018494  -0.804246   -0.5668464   0.40539697]
 [-0.14156722 -1.0482254  -0.93964326 -0.02109505 -1.0785002  -1.2842402
  -0.7464784  -0.49691814  0.38389984  0.64553696]
 [-0.01293461  0.84286916 -0.11414052  0.00560368  1.0670946  -1.046342
   0.99190867 -0.4931311   0.09211998 -0.65448946]
 [-0.93535054  0.8941452  -0.9996283  -0.7933194  -0.93914884  0.38682362
  -0.3520166   0.3597506   0.30063558 -1.4299271 ]
 [ 0.12264439 -0.831373    0.98894763 -0.4465217   0.04175521  0.52512515
  -0.64773893  0.44260168 -0.48218572 -0.27708122]
 [-0.04114841  0.6258182   0.7852448  -0.14422221  0.45340517  0.19133429
   0.6008696   1.0404642  -1.2534696  -0.7290851 ]
 [ 0.31925744 -0.02868293  0.51037025 -1.2096106   0.5645409   0.38627625
  -0.36320007 -0.29436925 -1.1273444   0.92570245]
 [ 0.7744913   1.2415622  -0.532441    0.9185712   0.86162364 -0.42309582
   0.39622015 -0.39745355 -0.3129691   0.37244233]
 [ 0.7609711   0.13179255 -1.2502306   0.46428478  0.08345944  0.07913061
   0.3885457   1.2902105   0.32733655 -0.75853986]]
simple_rnn/bias:0
(10,)
[-0.09143425  0.17477183  0.09366441  0.10617889  0.11908229 -0.12127042
 -0.08915485 -0.04040762 -0.03693219 -0.03989682]
dense/kernel:0
(10, 26)
[[-0.03153118 -0.03421212 -0.24362946 -0.07665451  0.6501142  -0.667264
  -0.8032409   0.7482653   1.1088438   0.5391136   1.2940437   0.23655981
  -1.3250849  -0.67112446 -0.52633166 -0.5264069  -0.662082   -0.96918935
   0.6316841   1.1731306   1.2396932   0.9056132   0.7347629  -1.2297567
  -0.66934717 -1.0410792 ]
 [-0.1501043  -0.33343342 -0.30123678  0.14855695  0.51335377  0.36421043
  -1.1260312  -0.7896803   0.35707596  0.72970235 -0.9484115  -1.0858423
  -0.6378034  -1.3099662   0.12974131  0.6824649   0.68790644 -0.32271165
   0.57337517  1.0333798  -1.0614232  -0.44025737 -0.9003896  -0.7149021
   0.47594395  0.9261382 ]
 [ 0.6212753   0.25097823  0.4198789   0.28176063 -1.2808088  -0.5812577
   0.83591986 -0.93631536 -0.8098662  -0.22206168  0.6009405  -0.72649074
   0.34915316 -1.0147489   0.6874908  -0.628643    0.95800877 -0.87075114
  -0.3450856   0.75570583 -0.7438532   0.5736253   1.0087476  -0.5406055
   0.92386615 -0.7225284 ]
 [-0.01545461 -0.373712   -0.10373012 -0.02254472  0.37588474  0.922709
   0.00183549  0.7635154   0.80670834 -0.5450175  -0.7654656  -0.8902856
  -0.9853924   0.88798285  0.6043731   0.827565    0.35331783 -1.0233397
   0.6425426  -0.48526865 -1.026994   -0.9042909  -0.21106043 -0.48039687
   1.1314514   0.81886274]
 [-0.19112393 -0.1432075   0.11014178 -0.14465827  1.0712544   0.90629977
   1.007499   -0.89497995  0.48392665  0.2902055   1.3991045  -0.4974911
  -0.34763086 -0.3644895   0.54180807  0.6981737   0.61550236 -0.74359953
  -0.89352405  0.8664398  -0.98282325 -1.1181699  -1.3146585  -0.9059782
   0.9372193  -0.85917073]
 [-0.05195262 -0.45465338 -0.04129421 -0.02233278 -0.66276973 -0.51792717
   0.7608644  -1.3086175  -0.6806632   1.0788924   0.8349375   1.1335541
  -0.80895364 -0.9431017  -0.9222177  -0.83424944 -0.41022095  0.3922485
   0.87421286  0.98775613  0.64768535  1.0518968   1.0496404   1.0514754
  -0.62237716 -0.73272425]
 [ 0.09028457  0.28589925  0.1406318  -0.19658737  0.2761119   0.54276395
  -1.0968779  -0.64821476  0.81965274  0.95263064 -0.36312956 -0.89651364
  -0.7645517  -0.5387719   0.8904847   0.8196996   0.8086411  -0.99336284
   0.6495655   0.88968855 -0.10804541 -0.41897947 -1.0178186  -0.5228823
  -1.2726239  -0.950488  ]
 [-0.35057178 -0.2962178  -0.25405112 -0.3556327  -0.9858401  -0.9349872
  -0.46351132  0.76868856  0.83035034  1.1304531   0.5614441   1.1595807
  -1.0836543   0.7419065  -1.1084254   1.143129   -0.9525336  -0.2650261
   0.8501178  -0.9601115   1.1371839   1.0448552  -0.6104342   0.6122954
  -0.51478755 -0.58414525]
 [ 0.31723246  0.06385802  0.34652412  0.02507831  0.46935055 -1.140118
  -0.875771    0.6414853  -1.1735572  -1.0901537  -0.47422856  0.823458
  -0.6156851   0.33896694  0.9850755   1.0262715  -0.97766954  0.8906648
   0.9910575  -0.9397614  -0.7033006  -0.9742184  -0.53540117  0.7116299
  -1.1301354   0.61543995]
 [-0.5740488  -0.45387927 -0.47029987 -0.36544064  1.1445628  -1.0033543
   0.6501912   0.97100866 -0.94805413 -0.61760736  0.8274286  -0.78743774
   0.84809613 -0.7747506   0.9401544  -0.845954   -1.2045419   1.0268447
   0.66430587  0.55365014 -0.89462495  0.9440689   0.62243724 -1.2245955
   0.81881666 -0.64510643]]
dense/bias:0
(26,)
[-0.44725877 -0.42499924 -0.4495465  -0.45082352  0.5974909   0.34481558
  0.42508286  0.02376956  0.5008267   0.47838855  0.38998058 -0.18053953
  0.32247442  0.69995517  0.3526714  -0.08460417  0.25596485  0.62509763
  0.7566041  -0.12577575 -0.2436224   0.04259706  0.06994287  0.40389088
 -0.19534662 -0.06866185]
